Language model created by QuickLM on Sat Nov  9 02:14:09 EST 2019
Copyright (c) 1996-2010 Carnegie Mellon University and Alexander I. Rudnicky

The model is in standard ARPA format, designed by Doug Paul while he was at MITRE.

The code that was used to produce this language model is available in Open Source.
Please visit http://www.speech.cs.cmu.edu/tools/ for more information

The (fixed) discount mass is 0.5. The backoffs are computed using the ratio method.
This model based on a corpus of 512 sentences and 514 words

\data\
ngram 1=514
ngram 2=1024
ngram 3=512

\1-grams:
-0.7782 </s> -0.3010
-0.7782 <s> -0.2218
-3.4874 অতদূর -0.2218
-3.4874 অতিরিক্ত -0.2218
-3.4874 অত্যাচার -0.2218
-3.4874 অদ্ভূত -0.2218
-3.4874 অনেক -0.2218
-3.4874 অনেকদিন -0.2218
-3.4874 অন্য -0.2218
-3.4874 অন্যতম -0.2218
-3.4874 অন্যান্য -0.2218
-3.4874 অবতীর্ণ -0.2218
-3.4874 অবধারিতভাবে -0.2218
-3.4874 অভিভাবকের -0.2218
-3.4874 অস্বীকার -0.2218
-3.4874 আই -0.2218
-3.4874 আইন -0.2218
-3.4874 আইসল্যান্ড -0.2218
-3.4874 আচ্ছা -0.2218
-3.4874 আছি -0.2218
-3.4874 আছে -0.2218
-3.4874 আছেন -0.2218
-3.4874 আছো -0.2218
-3.4874 আজ -0.2218
-3.4874 আজকাল -0.2218
-3.4874 আট -0.2218
-3.4874 আটখানা -0.2218
-3.4874 আদৌ -0.2218
-3.4874 আনডু -0.2218
-3.4874 আনন্দগুলোই -0.2218
-3.4874 আনন্দে -0.2218
-3.4874 আপনার -0.2218
-3.4874 আপনি -0.2218
-3.4874 আবেগ -0.2218
-3.4874 আমরা -0.2218
-3.4874 আমাকে -0.2218
-3.4874 আমাদের -0.2218
-3.4874 আমার -0.2218
-3.4874 আমি -0.2218
-3.4874 আর -0.2218
-3.4874 আরও -0.2218
-3.4874 আল্লাহ -0.2218
-3.4874 আশ্বাস -0.2218
-3.4874 আসল -0.2218
-3.4874 আসি -0.2218
-3.4874 আসে -0.2218
-3.4874 আহা -0.2218
-3.4874 আড়ালে -0.2218
-3.4874 ই -0.2218
-3.4874 ইউ -0.2218
-3.4874 ইচ্ছা -0.2218
-3.4874 ইতিহাসের -0.2218
-3.4874 ইদানিং -0.2218
-3.4874 ইন্টার -0.2218
-3.4874 উচিত -0.2218
-3.4874 উঠান -0.2218
-3.4874 উঠে -0.2218
-3.4874 উন্নয়নে -0.2218
-3.4874 উপন্যাসটি -0.2218
-3.4874 উপরে -0.2218
-3.4874 উপহার -0.2218
-3.4874 উপায় -0.2218
-3.4874 উভয়েরই -0.2218
-3.4874 এ -0.2218
-3.4874 এই -0.2218
-3.4874 এইচ -0.2218
-3.4874 এক -0.2218
-3.4874 একঘেয়ে -0.2218
-3.4874 একটা -0.2218
-3.4874 একটি -0.2218
-3.4874 একটু -0.2218
-3.4874 এক্স -0.2218
-3.4874 এক্সপ্লোরার -0.2218
-3.4874 এখন -0.2218
-3.4874 এগিয়ে -0.2218
-3.4874 এত -0.2218
-3.4874 এদের -0.2218
-3.4874 এন -0.2218
-3.4874 এনে -0.2218
-3.4874 এন্টার -0.2218
-3.4874 এফ -0.2218
-3.4874 এবং -0.2218
-3.4874 এবারের -0.2218
-3.4874 এভাবে -0.2218
-3.4874 এম -0.2218
-3.4874 এমনটা -0.2218
-3.4874 এর -0.2218
-3.4874 এল -0.2218
-3.4874 এস -0.2218
-3.4874 এসব -0.2218
-3.4874 এস্কেপ -0.2218
-3.4874 ঐ -0.2218
-3.4874 ও -0.2218
-3.4874 ওখানে -0.2218
-3.4874 ওয়াই -0.2218
-3.4874 ওয়ান্ডারফুল -0.2218
-3.4874 কখনও -0.2218
-3.4874 কতদিন -0.2218
-3.4874 কতো -0.2218
-3.4874 কথা -0.2218
-3.4874 কথাটা -0.2218
-3.4874 কথাবার্তা -0.2218
-3.4874 কথায় -0.2218
-3.4874 কন্ট্রোল -0.2218
-3.4874 কপি -0.2218
-3.4874 কবেই -0.2218
-3.4874 কমান্ড -0.2218
-3.4874 কম্পিউটার -0.2218
-3.4874 করছো -0.2218
-3.4874 করতে -0.2218
-3.4874 করবে -0.2218
-3.4874 করা -0.2218
-3.4874 করার -0.2218
-3.4874 করি -0.2218
-3.4874 করুন -0.2218
-3.4874 করে -0.2218
-3.4874 করেন -0.2218
-3.4874 করো -0.2218
-3.4874 কলেজের -0.2218
-3.4874 কাজ -0.2218
-3.4874 কাজটি -0.2218
-3.4874 কাজে -0.2218
-3.4874 কাট -0.2218
-3.4874 কারাগার -0.2218
-3.4874 কি -0.2218
-3.4874 কিউ -0.2218
-3.4874 কিছু -0.2218
-3.4874 কিছুই -0.2218
-3.4874 কিন্তু -0.2218
-3.4874 কিভাবে -0.2218
-3.4874 কীভাবে -0.2218
-3.4874 কে -0.2218
-3.4874 কেউ -0.2218
-3.4874 কেন -0.2218
-3.4874 কেমন -0.2218
-3.4874 কোথাও -0.2218
-3.4874 কোথায় -0.2218
-3.4874 কোন -0.2218
-3.4874 কোনদিন -0.2218
-3.4874 ক্যাপস -0.2218
-3.4874 ক্রিকেটে -0.2218
-3.4874 ক্রিকেটের -0.2218
-3.4874 ক্রোম -0.2218
-3.4874 ক্লিক -0.2218
-3.4874 ক্ষতি -0.2218
-3.4874 ক্ষমতা -0.2218
-3.4874 কয়েক -0.2218
-3.4874 খবর -0.2218
-3.4874 খবরদার -0.2218
-3.4874 খরচ -0.2218
-3.4874 খাওয়া -0.2218
-3.4874 খাবার -0.2218
-3.4874 খাবারকে -0.2218
-3.4874 খারাপ -0.2218
-3.4874 খুব -0.2218
-3.4874 খুলে -0.2218
-3.4874 খেলাতেও -0.2218
-3.4874 খোঁড়াখুড়ির -0.2218
-3.4874 খোলো -0.2218
-3.4874 গতকাল -0.2218
-3.4874 গরীব -0.2218
-3.4874 গর্ব -0.2218
-3.4874 গল্প -0.2218
-3.4874 গুগল -0.2218
-3.4874 গুন -0.2218
-3.4874 গেছি -0.2218
-3.4874 গেছে -0.2218
-3.4874 গেলে -0.2218
-3.4874 গ্যাস -0.2218
-3.4874 গড়াবে -0.2218
-3.4874 গড়ে -0.2218
-3.4874 ঘরে -0.2218
-3.4874 ঘুম -0.2218
-3.4874 ঘুমাতে -0.2218
-3.4874 ঘুরতে -0.2218
-3.4874 চমৎকার -0.2218
-3.4874 চল -0.2218
-3.4874 চলক -0.2218
-3.4874 চলে -0.2218
-3.4874 চলো -0.2218
-3.4874 চাই -0.2218
-3.4874 চাও -0.2218
-3.4874 চাপো -0.2218
-3.4874 চার -0.2218
-3.4874 চালু -0.2218
-3.4874 চিকুনগুনিয়া -0.2218
-3.4874 চিন্তাভাবনার -0.2218
-3.4874 চেয়ে -0.2218
-3.4874 ছাড়া -0.2218
-3.4874 ছিল -0.2218
-3.4874 ছুটি -0.2218
-3.4874 ছুটির -0.2218
-3.4874 ছেলেমেয়েদের -0.2218
-3.4874 ছেড়ে -0.2218
-3.4874 ছোট -0.2218
-3.4874 ছোটখাটো -0.2218
-3.4874 ছোটলোক -0.2218
-3.4874 ছয় -0.2218
-3.4874 জনপ্রিয় -0.2218
-3.4874 জন্ডিসের -0.2218
-3.4874 জন্ম -0.2218
-3.4874 জন্মদিন -0.2218
-3.4874 জন্য -0.2218
-3.4874 জলাবদ্ধতার -0.2218
-3.4874 জানতে -0.2218
-3.4874 জানলে -0.2218
-3.4874 জানো -0.2218
-3.4874 জি -0.2218
-3.4874 জিতেছে -0.2218
-3.4874 জীবনটা -0.2218
-3.4874 জীবনে -0.2218
-3.4874 জীবনের -0.2218
-3.4874 জে -0.2218
-3.4874 জেড -0.2218
-3.4874 জেনারেটর -0.2218
-3.4874 জেলা -0.2218
-3.4874 ঝুঁকি -0.2218
-3.4874 টাস্ক -0.2218
-3.4874 টি -0.2218
-3.4874 টিভি -0.2218
-3.4874 ট্যাব -0.2218
-3.4874 ডবল -0.2218
-3.4874 ডানে -0.2218
-3.4874 ডাবল -0.2218
-3.4874 ডাবলু -0.2218
-3.4874 ডি -0.2218
-3.4874 ডিলিট -0.2218
-3.4874 ডিসিদের -0.2218
-3.4874 ঢুকো -0.2218
-3.4874 তখন -0.2218
-3.4874 তাকাও -0.2218
-3.4874 তার -0.2218
-3.4874 তারপর -0.2218
-3.4874 তিতাস -0.2218
-3.4874 তিন -0.2218
-3.4874 তুই -0.2218
-3.4874 তুমি -0.2218
-3.4874 তুলে -0.2218
-3.4874 তে -0.2218
-3.4874 তেজপাতা -0.2218
-3.4874 তো -0.2218
-3.4874 তোমাকে -0.2218
-3.4874 তোমাদের -0.2218
-3.4874 তোমার -0.2218
-3.4874 তোমায় -0.2218
-3.4874 তোর -0.2218
-3.4874 তোল -0.2218
-3.4874 তোলা -0.2218
-3.4874 থাকবো -0.2218
-3.4874 থাকলে -0.2218
-3.4874 থাকা -0.2218
-3.4874 থাকার -0.2218
-3.4874 থাকি -0.2218
-3.4874 থেকে -0.2218
-3.4874 দরকার -0.2218
-3.4874 দশমিক -0.2218
-3.4874 দাঁড়াও -0.2218
-3.4874 দায়িত্বশীল -0.2218
-3.4874 দিকে -0.2218
-3.4874 দিতে -0.2218
-3.4874 দিন -0.2218
-3.4874 দীর্ঘজীবি -0.2218
-3.4874 দুই -0.2218
-3.4874 দুর্যোগের -0.2218
-3.4874 দূর্গ -0.2218
-3.4874 দেওয়া -0.2218
-3.4874 দেখা -0.2218
-3.4874 দেখি -0.2218
-3.4874 দেখে -0.2218
-3.4874 দেশ -0.2218
-3.4874 দেশটির -0.2218
-3.4874 দেশে -0.2218
-3.4874 দেশের -0.2218
-3.4874 দোস্ত -0.2218
-3.4874 দয়া -0.2218
-3.4874 ধরণ -0.2218
-3.4874 নই -0.2218
-3.4874 নজর -0.2218
-3.4874 নতুন -0.2218
-3.4874 না -0.2218
-3.4874 নাই -0.2218
-3.4874 নাও -0.2218
-3.4874 নাচতে -0.2218
-3.4874 নাটকটা -0.2218
-3.4874 নাম -0.2218
-3.4874 নাশিতা -0.2218
-3.4874 নি -0.2218
-3.4874 নিঃশ্বাস -0.2218
-3.4874 নিচে -0.2218
-3.4874 নিজের -0.2218
-3.4874 নিবে -0.2218
-3.4874 নিশাত -0.2218
-3.4874 নিশ্চিত -0.2218
-3.4874 নিশ্চয়ই -0.2218
-3.4874 নিস -0.2218
-3.4874 নিয়ে -0.2218
-3.4874 নেবেন -0.2218
-3.4874 নোটপ্যাড -0.2218
-3.4874 নয় -0.2218
-3.4874 পরিচয় -0.2218
-3.4874 পরিবর্তন -0.2218
-3.4874 পরিমাণ -0.2218
-3.4874 পরীক্ষার -0.2218
-3.4874 পশুপাখিকে -0.2218
-3.4874 পাঁচ -0.2218
-3.4874 পাবলিক -0.2218
-3.4874 পাভেলের -0.2218
-3.4874 পারছো -0.2218
-3.4874 পারি -0.2218
-3.4874 পারে -0.2218
-3.4874 পাশাপাশি -0.2218
-3.4874 পাড়া -0.2218
-3.4874 পি -0.2218
-3.4874 পিছনে -0.2218
-3.4874 পুনরায় -0.2218
-3.4874 পূর্ব -0.2218
-3.4874 পৃথিবী -0.2218
-3.4874 পৃথিবীর -0.2218
-3.4874 পেছনে -0.2218
-3.4874 পেতে -0.2218
-3.4874 পেলে -0.2218
-3.4874 পেস্ট -0.2218
-3.4874 প্যানেল -0.2218
-3.4874 প্যারা -0.2218
-3.4874 প্রজন্মের -0.2218
-3.4874 প্রতি -0.2218
-3.4874 প্রতিযোগিতা -0.2218
-3.4874 প্রাকৃতিক -0.2218
-3.4874 প্রোমট -0.2218
-3.4874 পড়ছো -0.2218
-3.4874 পড়তে -0.2218
-3.4874 পড়শির -0.2218
-3.4874 পড়েছো -0.2218
-3.4874 পয়সা -0.2218
-3.4874 ফলাফল -0.2218
-3.4874 ফাইল -0.2218
-3.4874 ফায়ারফক্স -0.2218
-3.4874 ফিট -0.2218
-3.4874 ফিরবে -0.2218
-3.4874 ফিরায়ে -0.2218
-3.4874 ফ্যান্টাস্টিক -0.2218
-3.4874 বই -0.2218
-3.4874 বছর -0.2218
-3.4874 বন্ধ -0.2218
-3.4874 বলতাম -0.2218
-3.4874 বলবি -0.2218
-3.4874 বলে -0.2218
-3.4874 বলো -0.2218
-3.4874 বাঁকা -0.2218
-3.4874 বাংলা -0.2218
-3.4874 বাংলাদেশ -0.2218
-3.4874 বাংলাদেশের -0.2218
-3.4874 বাইরে -0.2218
-3.4874 বানান -0.2218
-3.4874 বাপু -0.2218
-3.4874 বাবা -0.2218
-3.4874 বামে -0.2218
-3.4874 বার -0.2218
-3.4874 বাহ -0.2218
-3.4874 বি -0.2218
-3.4874 বিচার -0.2218
-3.4874 বিশুদ্ধ -0.2218
-3.4874 বিশ্বকাপে -0.2218
-3.4874 বিশ্ববিদ্যালয় -0.2218
-3.4874 বিয়া -0.2218
-3.4874 বিয়োগ -0.2218
-3.4874 বুঝতে -0.2218
-3.4874 বুঝি -0.2218
-3.4874 বুদ্ধি -0.2218
-3.4874 বৃষ্টি -0.2218
-3.4874 বৃষ্টির -0.2218
-3.4874 বেঁচে -0.2218
-3.4874 বের -0.2218
-3.4874 বেশি -0.2218
-3.4874 বেড়ে -0.2218
-3.4874 বৈচিত্র -0.2218
-3.4874 ব্যাক -0.2218
-3.4874 ব্যাপার -0.2218
-3.4874 ব্যাপারটা -0.2218
-3.4874 ব্যাপারস্যাপার -0.2218
-3.4874 ব্যাপারে -0.2218
-3.4874 ব্রাউজার -0.2218
-3.4874 বড় -0.2218
-3.4874 বয়স -0.2218
-3.4874 ভাই -0.2218
-3.4874 ভাগ -0.2218
-3.4874 ভাব -0.2218
-3.4874 ভাবি -0.2218
-3.4874 ভাল -0.2218
-3.4874 ভালবাসি -0.2218
-3.4874 ভালো -0.2218
-3.4874 ভালোবাসা -0.2218
-3.4874 ভালোমন্দ -0.2218
-3.4874 ভি -0.2218
-3.4874 ভিখারি -0.2218
-3.4874 ভুমিকায় -0.2218
-3.4874 ভেতরে -0.2218
-3.4874 ভয়ঙ্কর -0.2218
-3.4874 মতো -0.2218
-3.4874 মধ্যে -0.2218
-3.4874 মন -0.2218
-3.4874 মনটা -0.2218
-3.4874 মনে -0.2218
-3.4874 মরে -0.2218
-3.4874 মশাই -0.2218
-3.4874 মা -0.2218
-3.4874 মাঝে -0.2218
-3.4874 মাধ্যমে -0.2218
-3.4874 মানায় -0.2218
-3.4874 মানুষ -0.2218
-3.4874 মানুষের -0.2218
-3.4874 মানে -0.2218
-3.4874 মায়ের -0.2218
-3.4874 মিলে -0.2218
-3.4874 মুক্তিযুদ্ধের -0.2218
-3.4874 মুক্তির -0.2218
-3.4874 মুখ -0.2218
-3.4874 মুখোমুখি -0.2218
-3.4874 মুখোশের -0.2218
-3.4874 মুভি -0.2218
-3.4874 মুহূর্তগুলো -0.2218
-3.4874 মেনু -0.2218
-3.4874 মেনে -0.2218
-3.4874 মেশিনম্যান -0.2218
-3.4874 ম্যানেজার -0.2218
-3.4874 যখন -0.2218
-3.4874 যথেষ্ট -0.2218
-3.4874 যদি -0.2218
-3.4874 যাই -0.2218
-3.4874 যাও -0.2218
-3.4874 যাওয়া -0.2218
-3.4874 যাচ্ছে -0.2218
-3.4874 যাচ্ছেন -0.2218
-3.4874 যাবে -0.2218
-3.4874 যাবো -0.2218
-3.4874 যার -0.2218
-3.4874 যায় -0.2218
-3.4874 যুক্তির -0.2218
-3.4874 যেন -0.2218
-3.4874 যোগ -0.2218
-3.4874 রাইট -0.2218
-3.4874 রাগলে -0.2218
-3.4874 রান্না -0.2218
-3.4874 রাস্তায় -0.2218
-3.4874 রিডু -0.2218
-3.4874 রেগে -0.2218
-3.4874 লক -0.2218
-3.4874 লাগছে -0.2218
-3.4874 লাগলো -0.2218
-3.4874 লাগে -0.2218
-3.4874 লুকাও -0.2218
-3.4874 ল্যাব -0.2218
-3.4874 শঙ্খনীল -0.2218
-3.4874 শরীর -0.2218
-3.4874 শান্তি -0.2218
-3.4874 শাসকের -0.2218
-3.4874 শিক্ষা -0.2218
-3.4874 শুধু -0.2218
-3.4874 শুনতে -0.2218
-3.4874 শুভ -0.2218
-3.4874 শূণ্য -0.2218
-3.4874 শেষ -0.2218
-3.4874 শোষিত -0.2218
-3.4874 শ্রীলংকা -0.2218
-3.4874 সংগঠন -0.2218
-3.4874 সংগ্রাম -0.2218
-3.4874 সংমিশ্রণই -0.2218
-3.4874 সকল -0.2218
-3.4874 সত্যি -0.2218
-3.4874 সব -0.2218
-3.4874 সবকিছু -0.2218
-3.4874 সবচেয়ে -0.2218
-3.4874 সবদিকে -0.2218
-3.4874 সবাই -0.2218
-3.4874 সবারই -0.2218
-3.4874 সমাজ -0.2218
-3.4874 সমান -0.2218
-3.4874 সময়ে -0.2218
-3.4874 সহযোগিতার -0.2218
-3.4874 সাত -0.2218
-3.4874 সাথে -0.2218
-3.4874 সাফল্য -0.2218
-3.4874 সি -0.2218
-3.4874 সিদ্ধান্ত -0.2218
-3.4874 সিফট -0.2218
-3.4874 সিরিজটি -0.2218
-3.4874 সিলেক্ট -0.2218
-3.4874 সুজাদ -0.2218
-3.4874 সুন্দর -0.2218
-3.4874 সূর্য -0.2218
-3.4874 সৃষ্টি -0.2218
-3.4874 সেই -0.2218
-3.4874 সেটিংস -0.2218
-3.4874 সেভ -0.2218
-3.4874 সোনার -0.2218
-3.4874 স্কুল -0.2218
-3.4874 স্ক্রিনসট -0.2218
-3.4874 স্টার্ট -0.2218
-3.4874 স্পেস -0.2218
-3.4874 হওয়া -0.2218
-3.4874 হচ্ছে -0.2218
-3.4874 হতে -0.2218
-3.4874 হতো -0.2218
-3.4874 হবে -0.2218
-3.4874 হলে -0.2218
-3.4874 হলেই -0.2218
-3.4874 হাই -0.2218
-3.4874 হাতে -0.2218
-3.4874 হাতের -0.2218
-3.4874 হার -0.2218
-3.4874 হোন -0.2218
-3.4874 হয় -0.2218
-3.4874 হয়ে -0.2218
-3.4874 হয়েছে -0.2218

\2-grams:
-3.0103 <s> অতদূর 0.0000
-3.0103 <s> অতিরিক্ত 0.0000
-3.0103 <s> অত্যাচার 0.0000
-3.0103 <s> অদ্ভূত 0.0000
-3.0103 <s> অনেক 0.0000
-3.0103 <s> অনেকদিন 0.0000
-3.0103 <s> অন্য 0.0000
-3.0103 <s> অন্যতম 0.0000
-3.0103 <s> অন্যান্য 0.0000
-3.0103 <s> অবতীর্ণ 0.0000
-3.0103 <s> অবধারিতভাবে 0.0000
-3.0103 <s> অভিভাবকের 0.0000
-3.0103 <s> অস্বীকার 0.0000
-3.0103 <s> আই 0.0000
-3.0103 <s> আইন 0.0000
-3.0103 <s> আইসল্যান্ড 0.0000
-3.0103 <s> আচ্ছা 0.0000
-3.0103 <s> আছি 0.0000
-3.0103 <s> আছে 0.0000
-3.0103 <s> আছেন 0.0000
-3.0103 <s> আছো 0.0000
-3.0103 <s> আজ 0.0000
-3.0103 <s> আজকাল 0.0000
-3.0103 <s> আট 0.0000
-3.0103 <s> আটখানা 0.0000
-3.0103 <s> আদৌ 0.0000
-3.0103 <s> আনডু 0.0000
-3.0103 <s> আনন্দগুলোই 0.0000
-3.0103 <s> আনন্দে 0.0000
-3.0103 <s> আপনার 0.0000
-3.0103 <s> আপনি 0.0000
-3.0103 <s> আবেগ 0.0000
-3.0103 <s> আমরা 0.0000
-3.0103 <s> আমাকে 0.0000
-3.0103 <s> আমাদের 0.0000
-3.0103 <s> আমার 0.0000
-3.0103 <s> আমি 0.0000
-3.0103 <s> আর 0.0000
-3.0103 <s> আরও 0.0000
-3.0103 <s> আল্লাহ 0.0000
-3.0103 <s> আশ্বাস 0.0000
-3.0103 <s> আসল 0.0000
-3.0103 <s> আসি 0.0000
-3.0103 <s> আসে 0.0000
-3.0103 <s> আহা 0.0000
-3.0103 <s> আড়ালে 0.0000
-3.0103 <s> ই 0.0000
-3.0103 <s> ইউ 0.0000
-3.0103 <s> ইচ্ছা 0.0000
-3.0103 <s> ইতিহাসের 0.0000
-3.0103 <s> ইদানিং 0.0000
-3.0103 <s> ইন্টার 0.0000
-3.0103 <s> উচিত 0.0000
-3.0103 <s> উঠান 0.0000
-3.0103 <s> উঠে 0.0000
-3.0103 <s> উন্নয়নে 0.0000
-3.0103 <s> উপন্যাসটি 0.0000
-3.0103 <s> উপরে 0.0000
-3.0103 <s> উপহার 0.0000
-3.0103 <s> উপায় 0.0000
-3.0103 <s> উভয়েরই 0.0000
-3.0103 <s> এ 0.0000
-3.0103 <s> এই 0.0000
-3.0103 <s> এইচ 0.0000
-3.0103 <s> এক 0.0000
-3.0103 <s> একঘেয়ে 0.0000
-3.0103 <s> একটা 0.0000
-3.0103 <s> একটি 0.0000
-3.0103 <s> একটু 0.0000
-3.0103 <s> এক্স 0.0000
-3.0103 <s> এক্সপ্লোরার 0.0000
-3.0103 <s> এখন 0.0000
-3.0103 <s> এগিয়ে 0.0000
-3.0103 <s> এত 0.0000
-3.0103 <s> এদের 0.0000
-3.0103 <s> এন 0.0000
-3.0103 <s> এনে 0.0000
-3.0103 <s> এন্টার 0.0000
-3.0103 <s> এফ 0.0000
-3.0103 <s> এবং 0.0000
-3.0103 <s> এবারের 0.0000
-3.0103 <s> এভাবে 0.0000
-3.0103 <s> এম 0.0000
-3.0103 <s> এমনটা 0.0000
-3.0103 <s> এর 0.0000
-3.0103 <s> এল 0.0000
-3.0103 <s> এস 0.0000
-3.0103 <s> এসব 0.0000
-3.0103 <s> এস্কেপ 0.0000
-3.0103 <s> ঐ 0.0000
-3.0103 <s> ও 0.0000
-3.0103 <s> ওখানে 0.0000
-3.0103 <s> ওয়াই 0.0000
-3.0103 <s> ওয়ান্ডারফুল 0.0000
-3.0103 <s> কখনও 0.0000
-3.0103 <s> কতদিন 0.0000
-3.0103 <s> কতো 0.0000
-3.0103 <s> কথা 0.0000
-3.0103 <s> কথাটা 0.0000
-3.0103 <s> কথাবার্তা 0.0000
-3.0103 <s> কথায় 0.0000
-3.0103 <s> কন্ট্রোল 0.0000
-3.0103 <s> কপি 0.0000
-3.0103 <s> কবেই 0.0000
-3.0103 <s> কমান্ড 0.0000
-3.0103 <s> কম্পিউটার 0.0000
-3.0103 <s> করছো 0.0000
-3.0103 <s> করতে 0.0000
-3.0103 <s> করবে 0.0000
-3.0103 <s> করা 0.0000
-3.0103 <s> করার 0.0000
-3.0103 <s> করি 0.0000
-3.0103 <s> করুন 0.0000
-3.0103 <s> করে 0.0000
-3.0103 <s> করেন 0.0000
-3.0103 <s> করো 0.0000
-3.0103 <s> কলেজের 0.0000
-3.0103 <s> কাজ 0.0000
-3.0103 <s> কাজটি 0.0000
-3.0103 <s> কাজে 0.0000
-3.0103 <s> কাট 0.0000
-3.0103 <s> কারাগার 0.0000
-3.0103 <s> কি 0.0000
-3.0103 <s> কিউ 0.0000
-3.0103 <s> কিছু 0.0000
-3.0103 <s> কিছুই 0.0000
-3.0103 <s> কিন্তু 0.0000
-3.0103 <s> কিভাবে 0.0000
-3.0103 <s> কীভাবে 0.0000
-3.0103 <s> কে 0.0000
-3.0103 <s> কেউ 0.0000
-3.0103 <s> কেন 0.0000
-3.0103 <s> কেমন 0.0000
-3.0103 <s> কোথাও 0.0000
-3.0103 <s> কোথায় 0.0000
-3.0103 <s> কোন 0.0000
-3.0103 <s> কোনদিন 0.0000
-3.0103 <s> ক্যাপস 0.0000
-3.0103 <s> ক্রিকেটে 0.0000
-3.0103 <s> ক্রিকেটের 0.0000
-3.0103 <s> ক্রোম 0.0000
-3.0103 <s> ক্লিক 0.0000
-3.0103 <s> ক্ষতি 0.0000
-3.0103 <s> ক্ষমতা 0.0000
-3.0103 <s> কয়েক 0.0000
-3.0103 <s> খবর 0.0000
-3.0103 <s> খবরদার 0.0000
-3.0103 <s> খরচ 0.0000
-3.0103 <s> খাওয়া 0.0000
-3.0103 <s> খাবার 0.0000
-3.0103 <s> খাবারকে 0.0000
-3.0103 <s> খারাপ 0.0000
-3.0103 <s> খুব 0.0000
-3.0103 <s> খুলে 0.0000
-3.0103 <s> খেলাতেও 0.0000
-3.0103 <s> খোঁড়াখুড়ির 0.0000
-3.0103 <s> খোলো 0.0000
-3.0103 <s> গতকাল 0.0000
-3.0103 <s> গরীব 0.0000
-3.0103 <s> গর্ব 0.0000
-3.0103 <s> গল্প 0.0000
-3.0103 <s> গুগল 0.0000
-3.0103 <s> গুন 0.0000
-3.0103 <s> গেছি 0.0000
-3.0103 <s> গেছে 0.0000
-3.0103 <s> গেলে 0.0000
-3.0103 <s> গ্যাস 0.0000
-3.0103 <s> গড়াবে 0.0000
-3.0103 <s> গড়ে 0.0000
-3.0103 <s> ঘরে 0.0000
-3.0103 <s> ঘুম 0.0000
-3.0103 <s> ঘুমাতে 0.0000
-3.0103 <s> ঘুরতে 0.0000
-3.0103 <s> চমৎকার 0.0000
-3.0103 <s> চল 0.0000
-3.0103 <s> চলক 0.0000
-3.0103 <s> চলে 0.0000
-3.0103 <s> চলো 0.0000
-3.0103 <s> চাই 0.0000
-3.0103 <s> চাও 0.0000
-3.0103 <s> চাপো 0.0000
-3.0103 <s> চার 0.0000
-3.0103 <s> চালু 0.0000
-3.0103 <s> চিকুনগুনিয়া 0.0000
-3.0103 <s> চিন্তাভাবনার 0.0000
-3.0103 <s> চেয়ে 0.0000
-3.0103 <s> ছাড়া 0.0000
-3.0103 <s> ছিল 0.0000
-3.0103 <s> ছুটি 0.0000
-3.0103 <s> ছুটির 0.0000
-3.0103 <s> ছেলেমেয়েদের 0.0000
-3.0103 <s> ছেড়ে 0.0000
-3.0103 <s> ছোট 0.0000
-3.0103 <s> ছোটখাটো 0.0000
-3.0103 <s> ছোটলোক 0.0000
-3.0103 <s> ছয় 0.0000
-3.0103 <s> জনপ্রিয় 0.0000
-3.0103 <s> জন্ডিসের 0.0000
-3.0103 <s> জন্ম 0.0000
-3.0103 <s> জন্মদিন 0.0000
-3.0103 <s> জন্য 0.0000
-3.0103 <s> জলাবদ্ধতার 0.0000
-3.0103 <s> জানতে 0.0000
-3.0103 <s> জানলে 0.0000
-3.0103 <s> জানো 0.0000
-3.0103 <s> জি 0.0000
-3.0103 <s> জিতেছে 0.0000
-3.0103 <s> জীবনটা 0.0000
-3.0103 <s> জীবনে 0.0000
-3.0103 <s> জীবনের 0.0000
-3.0103 <s> জে 0.0000
-3.0103 <s> জেড 0.0000
-3.0103 <s> জেনারেটর 0.0000
-3.0103 <s> জেলা 0.0000
-3.0103 <s> ঝুঁকি 0.0000
-3.0103 <s> টাস্ক 0.0000
-3.0103 <s> টি 0.0000
-3.0103 <s> টিভি 0.0000
-3.0103 <s> ট্যাব 0.0000
-3.0103 <s> ডবল 0.0000
-3.0103 <s> ডানে 0.0000
-3.0103 <s> ডাবল 0.0000
-3.0103 <s> ডাবলু 0.0000
-3.0103 <s> ডি 0.0000
-3.0103 <s> ডিলিট 0.0000
-3.0103 <s> ডিসিদের 0.0000
-3.0103 <s> ঢুকো 0.0000
-3.0103 <s> তখন 0.0000
-3.0103 <s> তাকাও 0.0000
-3.0103 <s> তার 0.0000
-3.0103 <s> তারপর 0.0000
-3.0103 <s> তিতাস 0.0000
-3.0103 <s> তিন 0.0000
-3.0103 <s> তুই 0.0000
-3.0103 <s> তুমি 0.0000
-3.0103 <s> তুলে 0.0000
-3.0103 <s> তে 0.0000
-3.0103 <s> তেজপাতা 0.0000
-3.0103 <s> তো 0.0000
-3.0103 <s> তোমাকে 0.0000
-3.0103 <s> তোমাদের 0.0000
-3.0103 <s> তোমার 0.0000
-3.0103 <s> তোমায় 0.0000
-3.0103 <s> তোর 0.0000
-3.0103 <s> তোল 0.0000
-3.0103 <s> তোলা 0.0000
-3.0103 <s> থাকবো 0.0000
-3.0103 <s> থাকলে 0.0000
-3.0103 <s> থাকা 0.0000
-3.0103 <s> থাকার 0.0000
-3.0103 <s> থাকি 0.0000
-3.0103 <s> থেকে 0.0000
-3.0103 <s> দরকার 0.0000
-3.0103 <s> দশমিক 0.0000
-3.0103 <s> দাঁড়াও 0.0000
-3.0103 <s> দায়িত্বশীল 0.0000
-3.0103 <s> দিকে 0.0000
-3.0103 <s> দিতে 0.0000
-3.0103 <s> দিন 0.0000
-3.0103 <s> দীর্ঘজীবি 0.0000
-3.0103 <s> দুই 0.0000
-3.0103 <s> দুর্যোগের 0.0000
-3.0103 <s> দূর্গ 0.0000
-3.0103 <s> দেওয়া 0.0000
-3.0103 <s> দেখা 0.0000
-3.0103 <s> দেখি 0.0000
-3.0103 <s> দেখে 0.0000
-3.0103 <s> দেশ 0.0000
-3.0103 <s> দেশটির 0.0000
-3.0103 <s> দেশে 0.0000
-3.0103 <s> দেশের 0.0000
-3.0103 <s> দোস্ত 0.0000
-3.0103 <s> দয়া 0.0000
-3.0103 <s> ধরণ 0.0000
-3.0103 <s> নই 0.0000
-3.0103 <s> নজর 0.0000
-3.0103 <s> নতুন 0.0000
-3.0103 <s> না 0.0000
-3.0103 <s> নাই 0.0000
-3.0103 <s> নাও 0.0000
-3.0103 <s> নাচতে 0.0000
-3.0103 <s> নাটকটা 0.0000
-3.0103 <s> নাম 0.0000
-3.0103 <s> নাশিতা 0.0000
-3.0103 <s> নি 0.0000
-3.0103 <s> নিঃশ্বাস 0.0000
-3.0103 <s> নিচে 0.0000
-3.0103 <s> নিজের 0.0000
-3.0103 <s> নিবে 0.0000
-3.0103 <s> নিশাত 0.0000
-3.0103 <s> নিশ্চিত 0.0000
-3.0103 <s> নিশ্চয়ই 0.0000
-3.0103 <s> নিস 0.0000
-3.0103 <s> নিয়ে 0.0000
-3.0103 <s> নেবেন 0.0000
-3.0103 <s> নোটপ্যাড 0.0000
-3.0103 <s> নয় 0.0000
-3.0103 <s> পরিচয় 0.0000
-3.0103 <s> পরিবর্তন 0.0000
-3.0103 <s> পরিমাণ 0.0000
-3.0103 <s> পরীক্ষার 0.0000
-3.0103 <s> পশুপাখিকে 0.0000
-3.0103 <s> পাঁচ 0.0000
-3.0103 <s> পাবলিক 0.0000
-3.0103 <s> পাভেলের 0.0000
-3.0103 <s> পারছো 0.0000
-3.0103 <s> পারি 0.0000
-3.0103 <s> পারে 0.0000
-3.0103 <s> পাশাপাশি 0.0000
-3.0103 <s> পাড়া 0.0000
-3.0103 <s> পি 0.0000
-3.0103 <s> পিছনে 0.0000
-3.0103 <s> পুনরায় 0.0000
-3.0103 <s> পূর্ব 0.0000
-3.0103 <s> পৃথিবী 0.0000
-3.0103 <s> পৃথিবীর 0.0000
-3.0103 <s> পেছনে 0.0000
-3.0103 <s> পেতে 0.0000
-3.0103 <s> পেলে 0.0000
-3.0103 <s> পেস্ট 0.0000
-3.0103 <s> প্যানেল 0.0000
-3.0103 <s> প্যারা 0.0000
-3.0103 <s> প্রজন্মের 0.0000
-3.0103 <s> প্রতি 0.0000
-3.0103 <s> প্রতিযোগিতা 0.0000
-3.0103 <s> প্রাকৃতিক 0.0000
-3.0103 <s> প্রোমট 0.0000
-3.0103 <s> পড়ছো 0.0000
-3.0103 <s> পড়তে 0.0000
-3.0103 <s> পড়শির 0.0000
-3.0103 <s> পড়েছো 0.0000
-3.0103 <s> পয়সা 0.0000
-3.0103 <s> ফলাফল 0.0000
-3.0103 <s> ফাইল 0.0000
-3.0103 <s> ফায়ারফক্স 0.0000
-3.0103 <s> ফিট 0.0000
-3.0103 <s> ফিরবে 0.0000
-3.0103 <s> ফিরায়ে 0.0000
-3.0103 <s> ফ্যান্টাস্টিক 0.0000
-3.0103 <s> বই 0.0000
-3.0103 <s> বছর 0.0000
-3.0103 <s> বন্ধ 0.0000
-3.0103 <s> বলতাম 0.0000
-3.0103 <s> বলবি 0.0000
-3.0103 <s> বলে 0.0000
-3.0103 <s> বলো 0.0000
-3.0103 <s> বাঁকা 0.0000
-3.0103 <s> বাংলা 0.0000
-3.0103 <s> বাংলাদেশ 0.0000
-3.0103 <s> বাংলাদেশের 0.0000
-3.0103 <s> বাইরে 0.0000
-3.0103 <s> বানান 0.0000
-3.0103 <s> বাপু 0.0000
-3.0103 <s> বাবা 0.0000
-3.0103 <s> বামে 0.0000
-3.0103 <s> বার 0.0000
-3.0103 <s> বাহ 0.0000
-3.0103 <s> বি 0.0000
-3.0103 <s> বিচার 0.0000
-3.0103 <s> বিশুদ্ধ 0.0000
-3.0103 <s> বিশ্বকাপে 0.0000
-3.0103 <s> বিশ্ববিদ্যালয় 0.0000
-3.0103 <s> বিয়া 0.0000
-3.0103 <s> বিয়োগ 0.0000
-3.0103 <s> বুঝতে 0.0000
-3.0103 <s> বুঝি 0.0000
-3.0103 <s> বুদ্ধি 0.0000
-3.0103 <s> বৃষ্টি 0.0000
-3.0103 <s> বৃষ্টির 0.0000
-3.0103 <s> বেঁচে 0.0000
-3.0103 <s> বের 0.0000
-3.0103 <s> বেশি 0.0000
-3.0103 <s> বেড়ে 0.0000
-3.0103 <s> বৈচিত্র 0.0000
-3.0103 <s> ব্যাক 0.0000
-3.0103 <s> ব্যাপার 0.0000
-3.0103 <s> ব্যাপারটা 0.0000
-3.0103 <s> ব্যাপারস্যাপার 0.0000
-3.0103 <s> ব্যাপারে 0.0000
-3.0103 <s> ব্রাউজার 0.0000
-3.0103 <s> বড় 0.0000
-3.0103 <s> বয়স 0.0000
-3.0103 <s> ভাই 0.0000
-3.0103 <s> ভাগ 0.0000
-3.0103 <s> ভাব 0.0000
-3.0103 <s> ভাবি 0.0000
-3.0103 <s> ভাল 0.0000
-3.0103 <s> ভালবাসি 0.0000
-3.0103 <s> ভালো 0.0000
-3.0103 <s> ভালোবাসা 0.0000
-3.0103 <s> ভালোমন্দ 0.0000
-3.0103 <s> ভি 0.0000
-3.0103 <s> ভিখারি 0.0000
-3.0103 <s> ভুমিকায় 0.0000
-3.0103 <s> ভেতরে 0.0000
-3.0103 <s> ভয়ঙ্কর 0.0000
-3.0103 <s> মতো 0.0000
-3.0103 <s> মধ্যে 0.0000
-3.0103 <s> মন 0.0000
-3.0103 <s> মনটা 0.0000
-3.0103 <s> মনে 0.0000
-3.0103 <s> মরে 0.0000
-3.0103 <s> মশাই 0.0000
-3.0103 <s> মা 0.0000
-3.0103 <s> মাঝে 0.0000
-3.0103 <s> মাধ্যমে 0.0000
-3.0103 <s> মানায় 0.0000
-3.0103 <s> মানুষ 0.0000
-3.0103 <s> মানুষের 0.0000
-3.0103 <s> মানে 0.0000
-3.0103 <s> মায়ের 0.0000
-3.0103 <s> মিলে 0.0000
-3.0103 <s> মুক্তিযুদ্ধের 0.0000
-3.0103 <s> মুক্তির 0.0000
-3.0103 <s> মুখ 0.0000
-3.0103 <s> মুখোমুখি 0.0000
-3.0103 <s> মুখোশের 0.0000
-3.0103 <s> মুভি 0.0000
-3.0103 <s> মুহূর্তগুলো 0.0000
-3.0103 <s> মেনু 0.0000
-3.0103 <s> মেনে 0.0000
-3.0103 <s> মেশিনম্যান 0.0000
-3.0103 <s> ম্যানেজার 0.0000
-3.0103 <s> যখন 0.0000
-3.0103 <s> যথেষ্ট 0.0000
-3.0103 <s> যদি 0.0000
-3.0103 <s> যাই 0.0000
-3.0103 <s> যাও 0.0000
-3.0103 <s> যাওয়া 0.0000
-3.0103 <s> যাচ্ছে 0.0000
-3.0103 <s> যাচ্ছেন 0.0000
-3.0103 <s> যাবে 0.0000
-3.0103 <s> যাবো 0.0000
-3.0103 <s> যার 0.0000
-3.0103 <s> যায় 0.0000
-3.0103 <s> যুক্তির 0.0000
-3.0103 <s> যেন 0.0000
-3.0103 <s> যোগ 0.0000
-3.0103 <s> রাইট 0.0000
-3.0103 <s> রাগলে 0.0000
-3.0103 <s> রান্না 0.0000
-3.0103 <s> রাস্তায় 0.0000
-3.0103 <s> রিডু 0.0000
-3.0103 <s> রেগে 0.0000
-3.0103 <s> লক 0.0000
-3.0103 <s> লাগছে 0.0000
-3.0103 <s> লাগলো 0.0000
-3.0103 <s> লাগে 0.0000
-3.0103 <s> লুকাও 0.0000
-3.0103 <s> ল্যাব 0.0000
-3.0103 <s> শঙ্খনীল 0.0000
-3.0103 <s> শরীর 0.0000
-3.0103 <s> শান্তি 0.0000
-3.0103 <s> শাসকের 0.0000
-3.0103 <s> শিক্ষা 0.0000
-3.0103 <s> শুধু 0.0000
-3.0103 <s> শুনতে 0.0000
-3.0103 <s> শুভ 0.0000
-3.0103 <s> শূণ্য 0.0000
-3.0103 <s> শেষ 0.0000
-3.0103 <s> শোষিত 0.0000
-3.0103 <s> শ্রীলংকা 0.0000
-3.0103 <s> সংগঠন 0.0000
-3.0103 <s> সংগ্রাম 0.0000
-3.0103 <s> সংমিশ্রণই 0.0000
-3.0103 <s> সকল 0.0000
-3.0103 <s> সত্যি 0.0000
-3.0103 <s> সব 0.0000
-3.0103 <s> সবকিছু 0.0000
-3.0103 <s> সবচেয়ে 0.0000
-3.0103 <s> সবদিকে 0.0000
-3.0103 <s> সবাই 0.0000
-3.0103 <s> সবারই 0.0000
-3.0103 <s> সমাজ 0.0000
-3.0103 <s> সমান 0.0000
-3.0103 <s> সময়ে 0.0000
-3.0103 <s> সহযোগিতার 0.0000
-3.0103 <s> সাত 0.0000
-3.0103 <s> সাথে 0.0000
-3.0103 <s> সাফল্য 0.0000
-3.0103 <s> সি 0.0000
-3.0103 <s> সিদ্ধান্ত 0.0000
-3.0103 <s> সিফট 0.0000
-3.0103 <s> সিরিজটি 0.0000
-3.0103 <s> সিলেক্ট 0.0000
-3.0103 <s> সুজাদ 0.0000
-3.0103 <s> সুন্দর 0.0000
-3.0103 <s> সূর্য 0.0000
-3.0103 <s> সৃষ্টি 0.0000
-3.0103 <s> সেই 0.0000
-3.0103 <s> সেটিংস 0.0000
-3.0103 <s> সেভ 0.0000
-3.0103 <s> সোনার 0.0000
-3.0103 <s> স্কুল 0.0000
-3.0103 <s> স্ক্রিনসট 0.0000
-3.0103 <s> স্টার্ট 0.0000
-3.0103 <s> স্পেস 0.0000
-3.0103 <s> হওয়া 0.0000
-3.0103 <s> হচ্ছে 0.0000
-3.0103 <s> হতে 0.0000
-3.0103 <s> হতো 0.0000
-3.0103 <s> হবে 0.0000
-3.0103 <s> হলে 0.0000
-3.0103 <s> হলেই 0.0000
-3.0103 <s> হাই 0.0000
-3.0103 <s> হাতে 0.0000
-3.0103 <s> হাতের 0.0000
-3.0103 <s> হার 0.0000
-3.0103 <s> হোন 0.0000
-3.0103 <s> হয় 0.0000
-3.0103 <s> হয়ে 0.0000
-3.0103 <s> হয়েছে 0.0000
-0.3010 অতদূর </s> -0.3010
-0.3010 অতিরিক্ত </s> -0.3010
-0.3010 অত্যাচার </s> -0.3010
-0.3010 অদ্ভূত </s> -0.3010
-0.3010 অনেক </s> -0.3010
-0.3010 অনেকদিন </s> -0.3010
-0.3010 অন্য </s> -0.3010
-0.3010 অন্যতম </s> -0.3010
-0.3010 অন্যান্য </s> -0.3010
-0.3010 অবতীর্ণ </s> -0.3010
-0.3010 অবধারিতভাবে </s> -0.3010
-0.3010 অভিভাবকের </s> -0.3010
-0.3010 অস্বীকার </s> -0.3010
-0.3010 আই </s> -0.3010
-0.3010 আইন </s> -0.3010
-0.3010 আইসল্যান্ড </s> -0.3010
-0.3010 আচ্ছা </s> -0.3010
-0.3010 আছি </s> -0.3010
-0.3010 আছে </s> -0.3010
-0.3010 আছেন </s> -0.3010
-0.3010 আছো </s> -0.3010
-0.3010 আজ </s> -0.3010
-0.3010 আজকাল </s> -0.3010
-0.3010 আট </s> -0.3010
-0.3010 আটখানা </s> -0.3010
-0.3010 আদৌ </s> -0.3010
-0.3010 আনডু </s> -0.3010
-0.3010 আনন্দগুলোই </s> -0.3010
-0.3010 আনন্দে </s> -0.3010
-0.3010 আপনার </s> -0.3010
-0.3010 আপনি </s> -0.3010
-0.3010 আবেগ </s> -0.3010
-0.3010 আমরা </s> -0.3010
-0.3010 আমাকে </s> -0.3010
-0.3010 আমাদের </s> -0.3010
-0.3010 আমার </s> -0.3010
-0.3010 আমি </s> -0.3010
-0.3010 আর </s> -0.3010
-0.3010 আরও </s> -0.3010
-0.3010 আল্লাহ </s> -0.3010
-0.3010 আশ্বাস </s> -0.3010
-0.3010 আসল </s> -0.3010
-0.3010 আসি </s> -0.3010
-0.3010 আসে </s> -0.3010
-0.3010 আহা </s> -0.3010
-0.3010 আড়ালে </s> -0.3010
-0.3010 ই </s> -0.3010
-0.3010 ইউ </s> -0.3010
-0.3010 ইচ্ছা </s> -0.3010
-0.3010 ইতিহাসের </s> -0.3010
-0.3010 ইদানিং </s> -0.3010
-0.3010 ইন্টার </s> -0.3010
-0.3010 উচিত </s> -0.3010
-0.3010 উঠান </s> -0.3010
-0.3010 উঠে </s> -0.3010
-0.3010 উন্নয়নে </s> -0.3010
-0.3010 উপন্যাসটি </s> -0.3010
-0.3010 উপরে </s> -0.3010
-0.3010 উপহার </s> -0.3010
-0.3010 উপায় </s> -0.3010
-0.3010 উভয়েরই </s> -0.3010
-0.3010 এ </s> -0.3010
-0.3010 এই </s> -0.3010
-0.3010 এইচ </s> -0.3010
-0.3010 এক </s> -0.3010
-0.3010 একঘেয়ে </s> -0.3010
-0.3010 একটা </s> -0.3010
-0.3010 একটি </s> -0.3010
-0.3010 একটু </s> -0.3010
-0.3010 এক্স </s> -0.3010
-0.3010 এক্সপ্লোরার </s> -0.3010
-0.3010 এখন </s> -0.3010
-0.3010 এগিয়ে </s> -0.3010
-0.3010 এত </s> -0.3010
-0.3010 এদের </s> -0.3010
-0.3010 এন </s> -0.3010
-0.3010 এনে </s> -0.3010
-0.3010 এন্টার </s> -0.3010
-0.3010 এফ </s> -0.3010
-0.3010 এবং </s> -0.3010
-0.3010 এবারের </s> -0.3010
-0.3010 এভাবে </s> -0.3010
-0.3010 এম </s> -0.3010
-0.3010 এমনটা </s> -0.3010
-0.3010 এর </s> -0.3010
-0.3010 এল </s> -0.3010
-0.3010 এস </s> -0.3010
-0.3010 এসব </s> -0.3010
-0.3010 এস্কেপ </s> -0.3010
-0.3010 ঐ </s> -0.3010
-0.3010 ও </s> -0.3010
-0.3010 ওখানে </s> -0.3010
-0.3010 ওয়াই </s> -0.3010
-0.3010 ওয়ান্ডারফুল </s> -0.3010
-0.3010 কখনও </s> -0.3010
-0.3010 কতদিন </s> -0.3010
-0.3010 কতো </s> -0.3010
-0.3010 কথা </s> -0.3010
-0.3010 কথাটা </s> -0.3010
-0.3010 কথাবার্তা </s> -0.3010
-0.3010 কথায় </s> -0.3010
-0.3010 কন্ট্রোল </s> -0.3010
-0.3010 কপি </s> -0.3010
-0.3010 কবেই </s> -0.3010
-0.3010 কমান্ড </s> -0.3010
-0.3010 কম্পিউটার </s> -0.3010
-0.3010 করছো </s> -0.3010
-0.3010 করতে </s> -0.3010
-0.3010 করবে </s> -0.3010
-0.3010 করা </s> -0.3010
-0.3010 করার </s> -0.3010
-0.3010 করি </s> -0.3010
-0.3010 করুন </s> -0.3010
-0.3010 করে </s> -0.3010
-0.3010 করেন </s> -0.3010
-0.3010 করো </s> -0.3010
-0.3010 কলেজের </s> -0.3010
-0.3010 কাজ </s> -0.3010
-0.3010 কাজটি </s> -0.3010
-0.3010 কাজে </s> -0.3010
-0.3010 কাট </s> -0.3010
-0.3010 কারাগার </s> -0.3010
-0.3010 কি </s> -0.3010
-0.3010 কিউ </s> -0.3010
-0.3010 কিছু </s> -0.3010
-0.3010 কিছুই </s> -0.3010
-0.3010 কিন্তু </s> -0.3010
-0.3010 কিভাবে </s> -0.3010
-0.3010 কীভাবে </s> -0.3010
-0.3010 কে </s> -0.3010
-0.3010 কেউ </s> -0.3010
-0.3010 কেন </s> -0.3010
-0.3010 কেমন </s> -0.3010
-0.3010 কোথাও </s> -0.3010
-0.3010 কোথায় </s> -0.3010
-0.3010 কোন </s> -0.3010
-0.3010 কোনদিন </s> -0.3010
-0.3010 ক্যাপস </s> -0.3010
-0.3010 ক্রিকেটে </s> -0.3010
-0.3010 ক্রিকেটের </s> -0.3010
-0.3010 ক্রোম </s> -0.3010
-0.3010 ক্লিক </s> -0.3010
-0.3010 ক্ষতি </s> -0.3010
-0.3010 ক্ষমতা </s> -0.3010
-0.3010 কয়েক </s> -0.3010
-0.3010 খবর </s> -0.3010
-0.3010 খবরদার </s> -0.3010
-0.3010 খরচ </s> -0.3010
-0.3010 খাওয়া </s> -0.3010
-0.3010 খাবার </s> -0.3010
-0.3010 খাবারকে </s> -0.3010
-0.3010 খারাপ </s> -0.3010
-0.3010 খুব </s> -0.3010
-0.3010 খুলে </s> -0.3010
-0.3010 খেলাতেও </s> -0.3010
-0.3010 খোঁড়াখুড়ির </s> -0.3010
-0.3010 খোলো </s> -0.3010
-0.3010 গতকাল </s> -0.3010
-0.3010 গরীব </s> -0.3010
-0.3010 গর্ব </s> -0.3010
-0.3010 গল্প </s> -0.3010
-0.3010 গুগল </s> -0.3010
-0.3010 গুন </s> -0.3010
-0.3010 গেছি </s> -0.3010
-0.3010 গেছে </s> -0.3010
-0.3010 গেলে </s> -0.3010
-0.3010 গ্যাস </s> -0.3010
-0.3010 গড়াবে </s> -0.3010
-0.3010 গড়ে </s> -0.3010
-0.3010 ঘরে </s> -0.3010
-0.3010 ঘুম </s> -0.3010
-0.3010 ঘুমাতে </s> -0.3010
-0.3010 ঘুরতে </s> -0.3010
-0.3010 চমৎকার </s> -0.3010
-0.3010 চল </s> -0.3010
-0.3010 চলক </s> -0.3010
-0.3010 চলে </s> -0.3010
-0.3010 চলো </s> -0.3010
-0.3010 চাই </s> -0.3010
-0.3010 চাও </s> -0.3010
-0.3010 চাপো </s> -0.3010
-0.3010 চার </s> -0.3010
-0.3010 চালু </s> -0.3010
-0.3010 চিকুনগুনিয়া </s> -0.3010
-0.3010 চিন্তাভাবনার </s> -0.3010
-0.3010 চেয়ে </s> -0.3010
-0.3010 ছাড়া </s> -0.3010
-0.3010 ছিল </s> -0.3010
-0.3010 ছুটি </s> -0.3010
-0.3010 ছুটির </s> -0.3010
-0.3010 ছেলেমেয়েদের </s> -0.3010
-0.3010 ছেড়ে </s> -0.3010
-0.3010 ছোট </s> -0.3010
-0.3010 ছোটখাটো </s> -0.3010
-0.3010 ছোটলোক </s> -0.3010
-0.3010 ছয় </s> -0.3010
-0.3010 জনপ্রিয় </s> -0.3010
-0.3010 জন্ডিসের </s> -0.3010
-0.3010 জন্ম </s> -0.3010
-0.3010 জন্মদিন </s> -0.3010
-0.3010 জন্য </s> -0.3010
-0.3010 জলাবদ্ধতার </s> -0.3010
-0.3010 জানতে </s> -0.3010
-0.3010 জানলে </s> -0.3010
-0.3010 জানো </s> -0.3010
-0.3010 জি </s> -0.3010
-0.3010 জিতেছে </s> -0.3010
-0.3010 জীবনটা </s> -0.3010
-0.3010 জীবনে </s> -0.3010
-0.3010 জীবনের </s> -0.3010
-0.3010 জে </s> -0.3010
-0.3010 জেড </s> -0.3010
-0.3010 জেনারেটর </s> -0.3010
-0.3010 জেলা </s> -0.3010
-0.3010 ঝুঁকি </s> -0.3010
-0.3010 টাস্ক </s> -0.3010
-0.3010 টি </s> -0.3010
-0.3010 টিভি </s> -0.3010
-0.3010 ট্যাব </s> -0.3010
-0.3010 ডবল </s> -0.3010
-0.3010 ডানে </s> -0.3010
-0.3010 ডাবল </s> -0.3010
-0.3010 ডাবলু </s> -0.3010
-0.3010 ডি </s> -0.3010
-0.3010 ডিলিট </s> -0.3010
-0.3010 ডিসিদের </s> -0.3010
-0.3010 ঢুকো </s> -0.3010
-0.3010 তখন </s> -0.3010
-0.3010 তাকাও </s> -0.3010
-0.3010 তার </s> -0.3010
-0.3010 তারপর </s> -0.3010
-0.3010 তিতাস </s> -0.3010
-0.3010 তিন </s> -0.3010
-0.3010 তুই </s> -0.3010
-0.3010 তুমি </s> -0.3010
-0.3010 তুলে </s> -0.3010
-0.3010 তে </s> -0.3010
-0.3010 তেজপাতা </s> -0.3010
-0.3010 তো </s> -0.3010
-0.3010 তোমাকে </s> -0.3010
-0.3010 তোমাদের </s> -0.3010
-0.3010 তোমার </s> -0.3010
-0.3010 তোমায় </s> -0.3010
-0.3010 তোর </s> -0.3010
-0.3010 তোল </s> -0.3010
-0.3010 তোলা </s> -0.3010
-0.3010 থাকবো </s> -0.3010
-0.3010 থাকলে </s> -0.3010
-0.3010 থাকা </s> -0.3010
-0.3010 থাকার </s> -0.3010
-0.3010 থাকি </s> -0.3010
-0.3010 থেকে </s> -0.3010
-0.3010 দরকার </s> -0.3010
-0.3010 দশমিক </s> -0.3010
-0.3010 দাঁড়াও </s> -0.3010
-0.3010 দায়িত্বশীল </s> -0.3010
-0.3010 দিকে </s> -0.3010
-0.3010 দিতে </s> -0.3010
-0.3010 দিন </s> -0.3010
-0.3010 দীর্ঘজীবি </s> -0.3010
-0.3010 দুই </s> -0.3010
-0.3010 দুর্যোগের </s> -0.3010
-0.3010 দূর্গ </s> -0.3010
-0.3010 দেওয়া </s> -0.3010
-0.3010 দেখা </s> -0.3010
-0.3010 দেখি </s> -0.3010
-0.3010 দেখে </s> -0.3010
-0.3010 দেশ </s> -0.3010
-0.3010 দেশটির </s> -0.3010
-0.3010 দেশে </s> -0.3010
-0.3010 দেশের </s> -0.3010
-0.3010 দোস্ত </s> -0.3010
-0.3010 দয়া </s> -0.3010
-0.3010 ধরণ </s> -0.3010
-0.3010 নই </s> -0.3010
-0.3010 নজর </s> -0.3010
-0.3010 নতুন </s> -0.3010
-0.3010 না </s> -0.3010
-0.3010 নাই </s> -0.3010
-0.3010 নাও </s> -0.3010
-0.3010 নাচতে </s> -0.3010
-0.3010 নাটকটা </s> -0.3010
-0.3010 নাম </s> -0.3010
-0.3010 নাশিতা </s> -0.3010
-0.3010 নি </s> -0.3010
-0.3010 নিঃশ্বাস </s> -0.3010
-0.3010 নিচে </s> -0.3010
-0.3010 নিজের </s> -0.3010
-0.3010 নিবে </s> -0.3010
-0.3010 নিশাত </s> -0.3010
-0.3010 নিশ্চিত </s> -0.3010
-0.3010 নিশ্চয়ই </s> -0.3010
-0.3010 নিস </s> -0.3010
-0.3010 নিয়ে </s> -0.3010
-0.3010 নেবেন </s> -0.3010
-0.3010 নোটপ্যাড </s> -0.3010
-0.3010 নয় </s> -0.3010
-0.3010 পরিচয় </s> -0.3010
-0.3010 পরিবর্তন </s> -0.3010
-0.3010 পরিমাণ </s> -0.3010
-0.3010 পরীক্ষার </s> -0.3010
-0.3010 পশুপাখিকে </s> -0.3010
-0.3010 পাঁচ </s> -0.3010
-0.3010 পাবলিক </s> -0.3010
-0.3010 পাভেলের </s> -0.3010
-0.3010 পারছো </s> -0.3010
-0.3010 পারি </s> -0.3010
-0.3010 পারে </s> -0.3010
-0.3010 পাশাপাশি </s> -0.3010
-0.3010 পাড়া </s> -0.3010
-0.3010 পি </s> -0.3010
-0.3010 পিছনে </s> -0.3010
-0.3010 পুনরায় </s> -0.3010
-0.3010 পূর্ব </s> -0.3010
-0.3010 পৃথিবী </s> -0.3010
-0.3010 পৃথিবীর </s> -0.3010
-0.3010 পেছনে </s> -0.3010
-0.3010 পেতে </s> -0.3010
-0.3010 পেলে </s> -0.3010
-0.3010 পেস্ট </s> -0.3010
-0.3010 প্যানেল </s> -0.3010
-0.3010 প্যারা </s> -0.3010
-0.3010 প্রজন্মের </s> -0.3010
-0.3010 প্রতি </s> -0.3010
-0.3010 প্রতিযোগিতা </s> -0.3010
-0.3010 প্রাকৃতিক </s> -0.3010
-0.3010 প্রোমট </s> -0.3010
-0.3010 পড়ছো </s> -0.3010
-0.3010 পড়তে </s> -0.3010
-0.3010 পড়শির </s> -0.3010
-0.3010 পড়েছো </s> -0.3010
-0.3010 পয়সা </s> -0.3010
-0.3010 ফলাফল </s> -0.3010
-0.3010 ফাইল </s> -0.3010
-0.3010 ফায়ারফক্স </s> -0.3010
-0.3010 ফিট </s> -0.3010
-0.3010 ফিরবে </s> -0.3010
-0.3010 ফিরায়ে </s> -0.3010
-0.3010 ফ্যান্টাস্টিক </s> -0.3010
-0.3010 বই </s> -0.3010
-0.3010 বছর </s> -0.3010
-0.3010 বন্ধ </s> -0.3010
-0.3010 বলতাম </s> -0.3010
-0.3010 বলবি </s> -0.3010
-0.3010 বলে </s> -0.3010
-0.3010 বলো </s> -0.3010
-0.3010 বাঁকা </s> -0.3010
-0.3010 বাংলা </s> -0.3010
-0.3010 বাংলাদেশ </s> -0.3010
-0.3010 বাংলাদেশের </s> -0.3010
-0.3010 বাইরে </s> -0.3010
-0.3010 বানান </s> -0.3010
-0.3010 বাপু </s> -0.3010
-0.3010 বাবা </s> -0.3010
-0.3010 বামে </s> -0.3010
-0.3010 বার </s> -0.3010
-0.3010 বাহ </s> -0.3010
-0.3010 বি </s> -0.3010
-0.3010 বিচার </s> -0.3010
-0.3010 বিশুদ্ধ </s> -0.3010
-0.3010 বিশ্বকাপে </s> -0.3010
-0.3010 বিশ্ববিদ্যালয় </s> -0.3010
-0.3010 বিয়া </s> -0.3010
-0.3010 বিয়োগ </s> -0.3010
-0.3010 বুঝতে </s> -0.3010
-0.3010 বুঝি </s> -0.3010
-0.3010 বুদ্ধি </s> -0.3010
-0.3010 বৃষ্টি </s> -0.3010
-0.3010 বৃষ্টির </s> -0.3010
-0.3010 বেঁচে </s> -0.3010
-0.3010 বের </s> -0.3010
-0.3010 বেশি </s> -0.3010
-0.3010 বেড়ে </s> -0.3010
-0.3010 বৈচিত্র </s> -0.3010
-0.3010 ব্যাক </s> -0.3010
-0.3010 ব্যাপার </s> -0.3010
-0.3010 ব্যাপারটা </s> -0.3010
-0.3010 ব্যাপারস্যাপার </s> -0.3010
-0.3010 ব্যাপারে </s> -0.3010
-0.3010 ব্রাউজার </s> -0.3010
-0.3010 বড় </s> -0.3010
-0.3010 বয়স </s> -0.3010
-0.3010 ভাই </s> -0.3010
-0.3010 ভাগ </s> -0.3010
-0.3010 ভাব </s> -0.3010
-0.3010 ভাবি </s> -0.3010
-0.3010 ভাল </s> -0.3010
-0.3010 ভালবাসি </s> -0.3010
-0.3010 ভালো </s> -0.3010
-0.3010 ভালোবাসা </s> -0.3010
-0.3010 ভালোমন্দ </s> -0.3010
-0.3010 ভি </s> -0.3010
-0.3010 ভিখারি </s> -0.3010
-0.3010 ভুমিকায় </s> -0.3010
-0.3010 ভেতরে </s> -0.3010
-0.3010 ভয়ঙ্কর </s> -0.3010
-0.3010 মতো </s> -0.3010
-0.3010 মধ্যে </s> -0.3010
-0.3010 মন </s> -0.3010
-0.3010 মনটা </s> -0.3010
-0.3010 মনে </s> -0.3010
-0.3010 মরে </s> -0.3010
-0.3010 মশাই </s> -0.3010
-0.3010 মা </s> -0.3010
-0.3010 মাঝে </s> -0.3010
-0.3010 মাধ্যমে </s> -0.3010
-0.3010 মানায় </s> -0.3010
-0.3010 মানুষ </s> -0.3010
-0.3010 মানুষের </s> -0.3010
-0.3010 মানে </s> -0.3010
-0.3010 মায়ের </s> -0.3010
-0.3010 মিলে </s> -0.3010
-0.3010 মুক্তিযুদ্ধের </s> -0.3010
-0.3010 মুক্তির </s> -0.3010
-0.3010 মুখ </s> -0.3010
-0.3010 মুখোমুখি </s> -0.3010
-0.3010 মুখোশের </s> -0.3010
-0.3010 মুভি </s> -0.3010
-0.3010 মুহূর্তগুলো </s> -0.3010
-0.3010 মেনু </s> -0.3010
-0.3010 মেনে </s> -0.3010
-0.3010 মেশিনম্যান </s> -0.3010
-0.3010 ম্যানেজার </s> -0.3010
-0.3010 যখন </s> -0.3010
-0.3010 যথেষ্ট </s> -0.3010
-0.3010 যদি </s> -0.3010
-0.3010 যাই </s> -0.3010
-0.3010 যাও </s> -0.3010
-0.3010 যাওয়া </s> -0.3010
-0.3010 যাচ্ছে </s> -0.3010
-0.3010 যাচ্ছেন </s> -0.3010
-0.3010 যাবে </s> -0.3010
-0.3010 যাবো </s> -0.3010
-0.3010 যার </s> -0.3010
-0.3010 যায় </s> -0.3010
-0.3010 যুক্তির </s> -0.3010
-0.3010 যেন </s> -0.3010
-0.3010 যোগ </s> -0.3010
-0.3010 রাইট </s> -0.3010
-0.3010 রাগলে </s> -0.3010
-0.3010 রান্না </s> -0.3010
-0.3010 রাস্তায় </s> -0.3010
-0.3010 রিডু </s> -0.3010
-0.3010 রেগে </s> -0.3010
-0.3010 লক </s> -0.3010
-0.3010 লাগছে </s> -0.3010
-0.3010 লাগলো </s> -0.3010
-0.3010 লাগে </s> -0.3010
-0.3010 লুকাও </s> -0.3010
-0.3010 ল্যাব </s> -0.3010
-0.3010 শঙ্খনীল </s> -0.3010
-0.3010 শরীর </s> -0.3010
-0.3010 শান্তি </s> -0.3010
-0.3010 শাসকের </s> -0.3010
-0.3010 শিক্ষা </s> -0.3010
-0.3010 শুধু </s> -0.3010
-0.3010 শুনতে </s> -0.3010
-0.3010 শুভ </s> -0.3010
-0.3010 শূণ্য </s> -0.3010
-0.3010 শেষ </s> -0.3010
-0.3010 শোষিত </s> -0.3010
-0.3010 শ্রীলংকা </s> -0.3010
-0.3010 সংগঠন </s> -0.3010
-0.3010 সংগ্রাম </s> -0.3010
-0.3010 সংমিশ্রণই </s> -0.3010
-0.3010 সকল </s> -0.3010
-0.3010 সত্যি </s> -0.3010
-0.3010 সব </s> -0.3010
-0.3010 সবকিছু </s> -0.3010
-0.3010 সবচেয়ে </s> -0.3010
-0.3010 সবদিকে </s> -0.3010
-0.3010 সবাই </s> -0.3010
-0.3010 সবারই </s> -0.3010
-0.3010 সমাজ </s> -0.3010
-0.3010 সমান </s> -0.3010
-0.3010 সময়ে </s> -0.3010
-0.3010 সহযোগিতার </s> -0.3010
-0.3010 সাত </s> -0.3010
-0.3010 সাথে </s> -0.3010
-0.3010 সাফল্য </s> -0.3010
-0.3010 সি </s> -0.3010
-0.3010 সিদ্ধান্ত </s> -0.3010
-0.3010 সিফট </s> -0.3010
-0.3010 সিরিজটি </s> -0.3010
-0.3010 সিলেক্ট </s> -0.3010
-0.3010 সুজাদ </s> -0.3010
-0.3010 সুন্দর </s> -0.3010
-0.3010 সূর্য </s> -0.3010
-0.3010 সৃষ্টি </s> -0.3010
-0.3010 সেই </s> -0.3010
-0.3010 সেটিংস </s> -0.3010
-0.3010 সেভ </s> -0.3010
-0.3010 সোনার </s> -0.3010
-0.3010 স্কুল </s> -0.3010
-0.3010 স্ক্রিনসট </s> -0.3010
-0.3010 স্টার্ট </s> -0.3010
-0.3010 স্পেস </s> -0.3010
-0.3010 হওয়া </s> -0.3010
-0.3010 হচ্ছে </s> -0.3010
-0.3010 হতে </s> -0.3010
-0.3010 হতো </s> -0.3010
-0.3010 হবে </s> -0.3010
-0.3010 হলে </s> -0.3010
-0.3010 হলেই </s> -0.3010
-0.3010 হাই </s> -0.3010
-0.3010 হাতে </s> -0.3010
-0.3010 হাতের </s> -0.3010
-0.3010 হার </s> -0.3010
-0.3010 হোন </s> -0.3010
-0.3010 হয় </s> -0.3010
-0.3010 হয়ে </s> -0.3010
-0.3010 হয়েছে </s> -0.3010

\3-grams:
-0.3010 <s> অতদূর </s>
-0.3010 <s> অতিরিক্ত </s>
-0.3010 <s> অত্যাচার </s>
-0.3010 <s> অদ্ভূত </s>
-0.3010 <s> অনেক </s>
-0.3010 <s> অনেকদিন </s>
-0.3010 <s> অন্য </s>
-0.3010 <s> অন্যতম </s>
-0.3010 <s> অন্যান্য </s>
-0.3010 <s> অবতীর্ণ </s>
-0.3010 <s> অবধারিতভাবে </s>
-0.3010 <s> অভিভাবকের </s>
-0.3010 <s> অস্বীকার </s>
-0.3010 <s> আই </s>
-0.3010 <s> আইন </s>
-0.3010 <s> আইসল্যান্ড </s>
-0.3010 <s> আচ্ছা </s>
-0.3010 <s> আছি </s>
-0.3010 <s> আছে </s>
-0.3010 <s> আছেন </s>
-0.3010 <s> আছো </s>
-0.3010 <s> আজ </s>
-0.3010 <s> আজকাল </s>
-0.3010 <s> আট </s>
-0.3010 <s> আটখানা </s>
-0.3010 <s> আদৌ </s>
-0.3010 <s> আনডু </s>
-0.3010 <s> আনন্দগুলোই </s>
-0.3010 <s> আনন্দে </s>
-0.3010 <s> আপনার </s>
-0.3010 <s> আপনি </s>
-0.3010 <s> আবেগ </s>
-0.3010 <s> আমরা </s>
-0.3010 <s> আমাকে </s>
-0.3010 <s> আমাদের </s>
-0.3010 <s> আমার </s>
-0.3010 <s> আমি </s>
-0.3010 <s> আর </s>
-0.3010 <s> আরও </s>
-0.3010 <s> আল্লাহ </s>
-0.3010 <s> আশ্বাস </s>
-0.3010 <s> আসল </s>
-0.3010 <s> আসি </s>
-0.3010 <s> আসে </s>
-0.3010 <s> আহা </s>
-0.3010 <s> আড়ালে </s>
-0.3010 <s> ই </s>
-0.3010 <s> ইউ </s>
-0.3010 <s> ইচ্ছা </s>
-0.3010 <s> ইতিহাসের </s>
-0.3010 <s> ইদানিং </s>
-0.3010 <s> ইন্টার </s>
-0.3010 <s> উচিত </s>
-0.3010 <s> উঠান </s>
-0.3010 <s> উঠে </s>
-0.3010 <s> উন্নয়নে </s>
-0.3010 <s> উপন্যাসটি </s>
-0.3010 <s> উপরে </s>
-0.3010 <s> উপহার </s>
-0.3010 <s> উপায় </s>
-0.3010 <s> উভয়েরই </s>
-0.3010 <s> এ </s>
-0.3010 <s> এই </s>
-0.3010 <s> এইচ </s>
-0.3010 <s> এক </s>
-0.3010 <s> একঘেয়ে </s>
-0.3010 <s> একটা </s>
-0.3010 <s> একটি </s>
-0.3010 <s> একটু </s>
-0.3010 <s> এক্স </s>
-0.3010 <s> এক্সপ্লোরার </s>
-0.3010 <s> এখন </s>
-0.3010 <s> এগিয়ে </s>
-0.3010 <s> এত </s>
-0.3010 <s> এদের </s>
-0.3010 <s> এন </s>
-0.3010 <s> এনে </s>
-0.3010 <s> এন্টার </s>
-0.3010 <s> এফ </s>
-0.3010 <s> এবং </s>
-0.3010 <s> এবারের </s>
-0.3010 <s> এভাবে </s>
-0.3010 <s> এম </s>
-0.3010 <s> এমনটা </s>
-0.3010 <s> এর </s>
-0.3010 <s> এল </s>
-0.3010 <s> এস </s>
-0.3010 <s> এসব </s>
-0.3010 <s> এস্কেপ </s>
-0.3010 <s> ঐ </s>
-0.3010 <s> ও </s>
-0.3010 <s> ওখানে </s>
-0.3010 <s> ওয়াই </s>
-0.3010 <s> ওয়ান্ডারফুল </s>
-0.3010 <s> কখনও </s>
-0.3010 <s> কতদিন </s>
-0.3010 <s> কতো </s>
-0.3010 <s> কথা </s>
-0.3010 <s> কথাটা </s>
-0.3010 <s> কথাবার্তা </s>
-0.3010 <s> কথায় </s>
-0.3010 <s> কন্ট্রোল </s>
-0.3010 <s> কপি </s>
-0.3010 <s> কবেই </s>
-0.3010 <s> কমান্ড </s>
-0.3010 <s> কম্পিউটার </s>
-0.3010 <s> করছো </s>
-0.3010 <s> করতে </s>
-0.3010 <s> করবে </s>
-0.3010 <s> করা </s>
-0.3010 <s> করার </s>
-0.3010 <s> করি </s>
-0.3010 <s> করুন </s>
-0.3010 <s> করে </s>
-0.3010 <s> করেন </s>
-0.3010 <s> করো </s>
-0.3010 <s> কলেজের </s>
-0.3010 <s> কাজ </s>
-0.3010 <s> কাজটি </s>
-0.3010 <s> কাজে </s>
-0.3010 <s> কাট </s>
-0.3010 <s> কারাগার </s>
-0.3010 <s> কি </s>
-0.3010 <s> কিউ </s>
-0.3010 <s> কিছু </s>
-0.3010 <s> কিছুই </s>
-0.3010 <s> কিন্তু </s>
-0.3010 <s> কিভাবে </s>
-0.3010 <s> কীভাবে </s>
-0.3010 <s> কে </s>
-0.3010 <s> কেউ </s>
-0.3010 <s> কেন </s>
-0.3010 <s> কেমন </s>
-0.3010 <s> কোথাও </s>
-0.3010 <s> কোথায় </s>
-0.3010 <s> কোন </s>
-0.3010 <s> কোনদিন </s>
-0.3010 <s> ক্যাপস </s>
-0.3010 <s> ক্রিকেটে </s>
-0.3010 <s> ক্রিকেটের </s>
-0.3010 <s> ক্রোম </s>
-0.3010 <s> ক্লিক </s>
-0.3010 <s> ক্ষতি </s>
-0.3010 <s> ক্ষমতা </s>
-0.3010 <s> কয়েক </s>
-0.3010 <s> খবর </s>
-0.3010 <s> খবরদার </s>
-0.3010 <s> খরচ </s>
-0.3010 <s> খাওয়া </s>
-0.3010 <s> খাবার </s>
-0.3010 <s> খাবারকে </s>
-0.3010 <s> খারাপ </s>
-0.3010 <s> খুব </s>
-0.3010 <s> খুলে </s>
-0.3010 <s> খেলাতেও </s>
-0.3010 <s> খোঁড়াখুড়ির </s>
-0.3010 <s> খোলো </s>
-0.3010 <s> গতকাল </s>
-0.3010 <s> গরীব </s>
-0.3010 <s> গর্ব </s>
-0.3010 <s> গল্প </s>
-0.3010 <s> গুগল </s>
-0.3010 <s> গুন </s>
-0.3010 <s> গেছি </s>
-0.3010 <s> গেছে </s>
-0.3010 <s> গেলে </s>
-0.3010 <s> গ্যাস </s>
-0.3010 <s> গড়াবে </s>
-0.3010 <s> গড়ে </s>
-0.3010 <s> ঘরে </s>
-0.3010 <s> ঘুম </s>
-0.3010 <s> ঘুমাতে </s>
-0.3010 <s> ঘুরতে </s>
-0.3010 <s> চমৎকার </s>
-0.3010 <s> চল </s>
-0.3010 <s> চলক </s>
-0.3010 <s> চলে </s>
-0.3010 <s> চলো </s>
-0.3010 <s> চাই </s>
-0.3010 <s> চাও </s>
-0.3010 <s> চাপো </s>
-0.3010 <s> চার </s>
-0.3010 <s> চালু </s>
-0.3010 <s> চিকুনগুনিয়া </s>
-0.3010 <s> চিন্তাভাবনার </s>
-0.3010 <s> চেয়ে </s>
-0.3010 <s> ছাড়া </s>
-0.3010 <s> ছিল </s>
-0.3010 <s> ছুটি </s>
-0.3010 <s> ছুটির </s>
-0.3010 <s> ছেলেমেয়েদের </s>
-0.3010 <s> ছেড়ে </s>
-0.3010 <s> ছোট </s>
-0.3010 <s> ছোটখাটো </s>
-0.3010 <s> ছোটলোক </s>
-0.3010 <s> ছয় </s>
-0.3010 <s> জনপ্রিয় </s>
-0.3010 <s> জন্ডিসের </s>
-0.3010 <s> জন্ম </s>
-0.3010 <s> জন্মদিন </s>
-0.3010 <s> জন্য </s>
-0.3010 <s> জলাবদ্ধতার </s>
-0.3010 <s> জানতে </s>
-0.3010 <s> জানলে </s>
-0.3010 <s> জানো </s>
-0.3010 <s> জি </s>
-0.3010 <s> জিতেছে </s>
-0.3010 <s> জীবনটা </s>
-0.3010 <s> জীবনে </s>
-0.3010 <s> জীবনের </s>
-0.3010 <s> জে </s>
-0.3010 <s> জেড </s>
-0.3010 <s> জেনারেটর </s>
-0.3010 <s> জেলা </s>
-0.3010 <s> ঝুঁকি </s>
-0.3010 <s> টাস্ক </s>
-0.3010 <s> টি </s>
-0.3010 <s> টিভি </s>
-0.3010 <s> ট্যাব </s>
-0.3010 <s> ডবল </s>
-0.3010 <s> ডানে </s>
-0.3010 <s> ডাবল </s>
-0.3010 <s> ডাবলু </s>
-0.3010 <s> ডি </s>
-0.3010 <s> ডিলিট </s>
-0.3010 <s> ডিসিদের </s>
-0.3010 <s> ঢুকো </s>
-0.3010 <s> তখন </s>
-0.3010 <s> তাকাও </s>
-0.3010 <s> তার </s>
-0.3010 <s> তারপর </s>
-0.3010 <s> তিতাস </s>
-0.3010 <s> তিন </s>
-0.3010 <s> তুই </s>
-0.3010 <s> তুমি </s>
-0.3010 <s> তুলে </s>
-0.3010 <s> তে </s>
-0.3010 <s> তেজপাতা </s>
-0.3010 <s> তো </s>
-0.3010 <s> তোমাকে </s>
-0.3010 <s> তোমাদের </s>
-0.3010 <s> তোমার </s>
-0.3010 <s> তোমায় </s>
-0.3010 <s> তোর </s>
-0.3010 <s> তোল </s>
-0.3010 <s> তোলা </s>
-0.3010 <s> থাকবো </s>
-0.3010 <s> থাকলে </s>
-0.3010 <s> থাকা </s>
-0.3010 <s> থাকার </s>
-0.3010 <s> থাকি </s>
-0.3010 <s> থেকে </s>
-0.3010 <s> দরকার </s>
-0.3010 <s> দশমিক </s>
-0.3010 <s> দাঁড়াও </s>
-0.3010 <s> দায়িত্বশীল </s>
-0.3010 <s> দিকে </s>
-0.3010 <s> দিতে </s>
-0.3010 <s> দিন </s>
-0.3010 <s> দীর্ঘজীবি </s>
-0.3010 <s> দুই </s>
-0.3010 <s> দুর্যোগের </s>
-0.3010 <s> দূর্গ </s>
-0.3010 <s> দেওয়া </s>
-0.3010 <s> দেখা </s>
-0.3010 <s> দেখি </s>
-0.3010 <s> দেখে </s>
-0.3010 <s> দেশ </s>
-0.3010 <s> দেশটির </s>
-0.3010 <s> দেশে </s>
-0.3010 <s> দেশের </s>
-0.3010 <s> দোস্ত </s>
-0.3010 <s> দয়া </s>
-0.3010 <s> ধরণ </s>
-0.3010 <s> নই </s>
-0.3010 <s> নজর </s>
-0.3010 <s> নতুন </s>
-0.3010 <s> না </s>
-0.3010 <s> নাই </s>
-0.3010 <s> নাও </s>
-0.3010 <s> নাচতে </s>
-0.3010 <s> নাটকটা </s>
-0.3010 <s> নাম </s>
-0.3010 <s> নাশিতা </s>
-0.3010 <s> নি </s>
-0.3010 <s> নিঃশ্বাস </s>
-0.3010 <s> নিচে </s>
-0.3010 <s> নিজের </s>
-0.3010 <s> নিবে </s>
-0.3010 <s> নিশাত </s>
-0.3010 <s> নিশ্চিত </s>
-0.3010 <s> নিশ্চয়ই </s>
-0.3010 <s> নিস </s>
-0.3010 <s> নিয়ে </s>
-0.3010 <s> নেবেন </s>
-0.3010 <s> নোটপ্যাড </s>
-0.3010 <s> নয় </s>
-0.3010 <s> পরিচয় </s>
-0.3010 <s> পরিবর্তন </s>
-0.3010 <s> পরিমাণ </s>
-0.3010 <s> পরীক্ষার </s>
-0.3010 <s> পশুপাখিকে </s>
-0.3010 <s> পাঁচ </s>
-0.3010 <s> পাবলিক </s>
-0.3010 <s> পাভেলের </s>
-0.3010 <s> পারছো </s>
-0.3010 <s> পারি </s>
-0.3010 <s> পারে </s>
-0.3010 <s> পাশাপাশি </s>
-0.3010 <s> পাড়া </s>
-0.3010 <s> পি </s>
-0.3010 <s> পিছনে </s>
-0.3010 <s> পুনরায় </s>
-0.3010 <s> পূর্ব </s>
-0.3010 <s> পৃথিবী </s>
-0.3010 <s> পৃথিবীর </s>
-0.3010 <s> পেছনে </s>
-0.3010 <s> পেতে </s>
-0.3010 <s> পেলে </s>
-0.3010 <s> পেস্ট </s>
-0.3010 <s> প্যানেল </s>
-0.3010 <s> প্যারা </s>
-0.3010 <s> প্রজন্মের </s>
-0.3010 <s> প্রতি </s>
-0.3010 <s> প্রতিযোগিতা </s>
-0.3010 <s> প্রাকৃতিক </s>
-0.3010 <s> প্রোমট </s>
-0.3010 <s> পড়ছো </s>
-0.3010 <s> পড়তে </s>
-0.3010 <s> পড়শির </s>
-0.3010 <s> পড়েছো </s>
-0.3010 <s> পয়সা </s>
-0.3010 <s> ফলাফল </s>
-0.3010 <s> ফাইল </s>
-0.3010 <s> ফায়ারফক্স </s>
-0.3010 <s> ফিট </s>
-0.3010 <s> ফিরবে </s>
-0.3010 <s> ফিরায়ে </s>
-0.3010 <s> ফ্যান্টাস্টিক </s>
-0.3010 <s> বই </s>
-0.3010 <s> বছর </s>
-0.3010 <s> বন্ধ </s>
-0.3010 <s> বলতাম </s>
-0.3010 <s> বলবি </s>
-0.3010 <s> বলে </s>
-0.3010 <s> বলো </s>
-0.3010 <s> বাঁকা </s>
-0.3010 <s> বাংলা </s>
-0.3010 <s> বাংলাদেশ </s>
-0.3010 <s> বাংলাদেশের </s>
-0.3010 <s> বাইরে </s>
-0.3010 <s> বানান </s>
-0.3010 <s> বাপু </s>
-0.3010 <s> বাবা </s>
-0.3010 <s> বামে </s>
-0.3010 <s> বার </s>
-0.3010 <s> বাহ </s>
-0.3010 <s> বি </s>
-0.3010 <s> বিচার </s>
-0.3010 <s> বিশুদ্ধ </s>
-0.3010 <s> বিশ্বকাপে </s>
-0.3010 <s> বিশ্ববিদ্যালয় </s>
-0.3010 <s> বিয়া </s>
-0.3010 <s> বিয়োগ </s>
-0.3010 <s> বুঝতে </s>
-0.3010 <s> বুঝি </s>
-0.3010 <s> বুদ্ধি </s>
-0.3010 <s> বৃষ্টি </s>
-0.3010 <s> বৃষ্টির </s>
-0.3010 <s> বেঁচে </s>
-0.3010 <s> বের </s>
-0.3010 <s> বেশি </s>
-0.3010 <s> বেড়ে </s>
-0.3010 <s> বৈচিত্র </s>
-0.3010 <s> ব্যাক </s>
-0.3010 <s> ব্যাপার </s>
-0.3010 <s> ব্যাপারটা </s>
-0.3010 <s> ব্যাপারস্যাপার </s>
-0.3010 <s> ব্যাপারে </s>
-0.3010 <s> ব্রাউজার </s>
-0.3010 <s> বড় </s>
-0.3010 <s> বয়স </s>
-0.3010 <s> ভাই </s>
-0.3010 <s> ভাগ </s>
-0.3010 <s> ভাব </s>
-0.3010 <s> ভাবি </s>
-0.3010 <s> ভাল </s>
-0.3010 <s> ভালবাসি </s>
-0.3010 <s> ভালো </s>
-0.3010 <s> ভালোবাসা </s>
-0.3010 <s> ভালোমন্দ </s>
-0.3010 <s> ভি </s>
-0.3010 <s> ভিখারি </s>
-0.3010 <s> ভুমিকায় </s>
-0.3010 <s> ভেতরে </s>
-0.3010 <s> ভয়ঙ্কর </s>
-0.3010 <s> মতো </s>
-0.3010 <s> মধ্যে </s>
-0.3010 <s> মন </s>
-0.3010 <s> মনটা </s>
-0.3010 <s> মনে </s>
-0.3010 <s> মরে </s>
-0.3010 <s> মশাই </s>
-0.3010 <s> মা </s>
-0.3010 <s> মাঝে </s>
-0.3010 <s> মাধ্যমে </s>
-0.3010 <s> মানায় </s>
-0.3010 <s> মানুষ </s>
-0.3010 <s> মানুষের </s>
-0.3010 <s> মানে </s>
-0.3010 <s> মায়ের </s>
-0.3010 <s> মিলে </s>
-0.3010 <s> মুক্তিযুদ্ধের </s>
-0.3010 <s> মুক্তির </s>
-0.3010 <s> মুখ </s>
-0.3010 <s> মুখোমুখি </s>
-0.3010 <s> মুখোশের </s>
-0.3010 <s> মুভি </s>
-0.3010 <s> মুহূর্তগুলো </s>
-0.3010 <s> মেনু </s>
-0.3010 <s> মেনে </s>
-0.3010 <s> মেশিনম্যান </s>
-0.3010 <s> ম্যানেজার </s>
-0.3010 <s> যখন </s>
-0.3010 <s> যথেষ্ট </s>
-0.3010 <s> যদি </s>
-0.3010 <s> যাই </s>
-0.3010 <s> যাও </s>
-0.3010 <s> যাওয়া </s>
-0.3010 <s> যাচ্ছে </s>
-0.3010 <s> যাচ্ছেন </s>
-0.3010 <s> যাবে </s>
-0.3010 <s> যাবো </s>
-0.3010 <s> যার </s>
-0.3010 <s> যায় </s>
-0.3010 <s> যুক্তির </s>
-0.3010 <s> যেন </s>
-0.3010 <s> যোগ </s>
-0.3010 <s> রাইট </s>
-0.3010 <s> রাগলে </s>
-0.3010 <s> রান্না </s>
-0.3010 <s> রাস্তায় </s>
-0.3010 <s> রিডু </s>
-0.3010 <s> রেগে </s>
-0.3010 <s> লক </s>
-0.3010 <s> লাগছে </s>
-0.3010 <s> লাগলো </s>
-0.3010 <s> লাগে </s>
-0.3010 <s> লুকাও </s>
-0.3010 <s> ল্যাব </s>
-0.3010 <s> শঙ্খনীল </s>
-0.3010 <s> শরীর </s>
-0.3010 <s> শান্তি </s>
-0.3010 <s> শাসকের </s>
-0.3010 <s> শিক্ষা </s>
-0.3010 <s> শুধু </s>
-0.3010 <s> শুনতে </s>
-0.3010 <s> শুভ </s>
-0.3010 <s> শূণ্য </s>
-0.3010 <s> শেষ </s>
-0.3010 <s> শোষিত </s>
-0.3010 <s> শ্রীলংকা </s>
-0.3010 <s> সংগঠন </s>
-0.3010 <s> সংগ্রাম </s>
-0.3010 <s> সংমিশ্রণই </s>
-0.3010 <s> সকল </s>
-0.3010 <s> সত্যি </s>
-0.3010 <s> সব </s>
-0.3010 <s> সবকিছু </s>
-0.3010 <s> সবচেয়ে </s>
-0.3010 <s> সবদিকে </s>
-0.3010 <s> সবাই </s>
-0.3010 <s> সবারই </s>
-0.3010 <s> সমাজ </s>
-0.3010 <s> সমান </s>
-0.3010 <s> সময়ে </s>
-0.3010 <s> সহযোগিতার </s>
-0.3010 <s> সাত </s>
-0.3010 <s> সাথে </s>
-0.3010 <s> সাফল্য </s>
-0.3010 <s> সি </s>
-0.3010 <s> সিদ্ধান্ত </s>
-0.3010 <s> সিফট </s>
-0.3010 <s> সিরিজটি </s>
-0.3010 <s> সিলেক্ট </s>
-0.3010 <s> সুজাদ </s>
-0.3010 <s> সুন্দর </s>
-0.3010 <s> সূর্য </s>
-0.3010 <s> সৃষ্টি </s>
-0.3010 <s> সেই </s>
-0.3010 <s> সেটিংস </s>
-0.3010 <s> সেভ </s>
-0.3010 <s> সোনার </s>
-0.3010 <s> স্কুল </s>
-0.3010 <s> স্ক্রিনসট </s>
-0.3010 <s> স্টার্ট </s>
-0.3010 <s> স্পেস </s>
-0.3010 <s> হওয়া </s>
-0.3010 <s> হচ্ছে </s>
-0.3010 <s> হতে </s>
-0.3010 <s> হতো </s>
-0.3010 <s> হবে </s>
-0.3010 <s> হলে </s>
-0.3010 <s> হলেই </s>
-0.3010 <s> হাই </s>
-0.3010 <s> হাতে </s>
-0.3010 <s> হাতের </s>
-0.3010 <s> হার </s>
-0.3010 <s> হোন </s>
-0.3010 <s> হয় </s>
-0.3010 <s> হয়ে </s>
-0.3010 <s> হয়েছে </s>

\end\
